Initial Network
---------------
[-0.1507897248285951, -0.38068907394765283, -0.36966965352886916] [-0.09589056793011885, 0.29891697350207724, -0.4600643789815346] [0.09938029661691195, -0.17440748862993993, 0.10728252709704411] [0.3188058791083753, 0.1609835044110195, -0.44627490481460186] [0.037859796932913414, -0.29367322081361713, -0.4820577702589962] [-0.2484285387341656, -0.3454271283091598, 0.4004439711997244] 
[-0.11753353764683594, 0.10266580072531883, -0.4619613758471184, -0.12392458466049361, 0.20255653024711773, -0.47514526862787076] [-0.04895309941566306, -0.4707322933086081, 0.14168217362267788, 0.3408712973251391, 0.11836649823645384, -0.20252158782841279] [0.3102030461032337, 0.2991824379348321, -0.1322529365583064, -0.06704474899903068, 0.46415741148775536, 0.3841855844550155] [0.3359093632918888, 0.1213861225128553, -0.011089485482310035, 0.24445870449177243, 0.35340227505626065, -0.011411951492084738] 
Final Network
---------------
[3.248207481176354, -4.124005326198295, -1.9153176402635248] [1.1266310062904517, -0.2691575594381457, -2.2971029723013614] [7.74507563762892, -1.7571844419335956, 7.313848676068473] [-2.746533709461277, 3.6419499365734778, 2.8086550048207686] [1.9139055272124184, 6.403260706165261, -5.376493049759269] [-3.774987855036646, -1.8888766432286286, -1.0757245066564722] 
[-6.070762597826642, 4.306415873635751, -12.361173045777372, -5.821801350548953, 0.5454753960959526, 9.121917207556839] [4.234862203643454, -10.75694007554137, -7.995394506742491, 7.85159197520476, -8.692307585954447, 3.8899135396226794] [7.806177623881825, -8.537985241640987, -1.6209868829226903, -8.529839054580732, 8.57152059369434, -5.005742361581641] [-7.900981236851031, 0.30867862538352836, 4.53498612819582, -3.5592892940820446, -4.3752854169520985, -8.822742910399194] 
